digraph Tree {
node [shape=box] ;
0 [label="Green <= 0.5\ngini = 0.8084\nsamples = 171\nvalue = [30, 14, 28, 47, 35, 17]"] ;
1 [label="Main_col <= 1.5\ngini = 0.8058\nsamples = 88\nvalue = [17, 9, 23, 6, 20, 13]"] ;
0 -> 1 [labeldistance=2.5, labelangle=45, headlabel="True"] ;
2 [label="Sunstars <= 0.5\ngini = 0.7372\nsamples = 28\nvalue = [10, 2, 4, 2, 1, 9]"] ;
1 -> 2 ;
3 [label="Crosses <= 0.5\ngini = 0.6311\nsamples = 15\nvalue = [8, 1, 4, 1, 0, 1]"] ;
2 -> 3 ;
4 [label="Botr_col <= 2.0\ngini = 0.562\nsamples = 11\nvalue = [7, 1, 1, 1, 0, 1]"] ;
3 -> 4 ;
5 [label="Stripes <= 4.0\ngini = 0.3704\nsamples = 9\nvalue = [7, 1, 0, 1, 0, 0]"] ;
4 -> 5 ;
6 [label="Gold <= 0.5\ngini = 0.2449\nsamples = 7\nvalue = [6, 1, 0, 0, 0, 0]"] ;
5 -> 6 ;
7 [label="Stripes <= 1.5\ngini = 0.375\nsamples = 4\nvalue = [3, 1, 0, 0, 0, 0]"] ;
6 -> 7 ;
8 [label="gini = 0.0\nsamples = 1\nvalue = [1, 0, 0, 0, 0, 0]"] ;
7 -> 8 ;
9 [label="gini = 0.4444\nsamples = 3\nvalue = [2, 1, 0, 0, 0, 0]"] ;
7 -> 9 ;
10 [label="gini = 0.0\nsamples = 3\nvalue = [3, 0, 0, 0, 0, 0]"] ;
6 -> 10 ;
11 [label="Red <= 0.5\ngini = 0.5\nsamples = 2\nvalue = [1, 0, 0, 1, 0, 0]"] ;
5 -> 11 ;
12 [label="gini = 0.0\nsamples = 1\nvalue = [0, 0, 0, 1, 0, 0]"] ;
11 -> 12 ;
13 [label="gini = 0.0\nsamples = 1\nvalue = [1, 0, 0, 0, 0, 0]"] ;
11 -> 13 ;
14 [label="Animate <= 0.5\ngini = 0.5\nsamples = 2\nvalue = [0, 0, 1, 0, 0, 1]"] ;
4 -> 14 ;
15 [label="gini = 0.0\nsamples = 1\nvalue = [0, 0, 1, 0, 0, 0]"] ;
14 -> 15 ;
16 [label="gini = 0.0\nsamples = 1\nvalue = [0, 0, 0, 0, 0, 1]"] ;
14 -> 16 ;
17 [label="Red <= 0.5\ngini = 0.375\nsamples = 4\nvalue = [1, 0, 3, 0, 0, 0]"] ;
3 -> 17 ;
18 [label="gini = 0.0\nsamples = 2\nvalue = [0, 0, 2, 0, 0, 0]"] ;
17 -> 18 ;
19 [label="gini = 0.5\nsamples = 2\nvalue = [1, 0, 1, 0, 0, 0]"] ;
17 -> 19 ;
20 [label="Stripes <= 1.5\ngini = 0.5799\nsamples = 13\nvalue = [2, 1, 0, 1, 1, 8]"] ;
2 -> 20 ;
21 [label="Sunstars <= 2.5\ngini = 0.2188\nsamples = 8\nvalue = [0, 0, 0, 1, 0, 7]"] ;
20 -> 21 ;
22 [label="Icon <= 0.5\ngini = 0.5\nsamples = 2\nvalue = [0, 0, 0, 1, 0, 1]"] ;
21 -> 22 ;
23 [label="gini = 0.0\nsamples = 1\nvalue = [0, 0, 0, 1, 0, 0]"] ;
22 -> 23 ;
24 [label="gini = 0.0\nsamples = 1\nvalue = [0, 0, 0, 0, 0, 1]"] ;
22 -> 24 ;
25 [label="gini = 0.0\nsamples = 6\nvalue = [0, 0, 0, 0, 0, 6]"] ;
21 -> 25 ;
26 [label="Gold <= 0.5\ngini = 0.72\nsamples = 5\nvalue = [2, 1, 0, 0, 1, 1]"] ;
20 -> 26 ;
27 [label="Circles <= 0.5\ngini = 0.4444\nsamples = 3\nvalue = [2, 0, 0, 0, 1, 0]"] ;
26 -> 27 ;
28 [label="gini = 0.0\nsamples = 2\nvalue = [2, 0, 0, 0, 0, 0]"] ;
27 -> 28 ;
29 [label="gini = 0.0\nsamples = 1\nvalue = [0, 0, 0, 0, 1, 0]"] ;
27 -> 29 ;
30 [label="gini = 0.5\nsamples = 2\nvalue = [0, 1, 0, 0, 0, 1]"] ;
26 -> 30 ;
31 [label="Sunstars <= 0.5\ngini = 0.7633\nsamples = 60\nvalue = [7, 7, 19, 4, 19, 4]"] ;
1 -> 31 ;
32 [label="Circles <= 0.5\ngini = 0.7022\nsamples = 36\nvalue = [3, 4, 17, 2, 8, 2]"] ;
31 -> 32 ;
33 [label="Animate <= 0.5\ngini = 0.6472\nsamples = 31\nvalue = [2, 4, 17, 1, 5, 2]"] ;
32 -> 33 ;
34 [label="Quarters <= 0.5\ngini = 0.5842\nsamples = 28\nvalue = [0, 4, 17, 1, 4, 2]"] ;
33 -> 34 ;
35 [label="Main_col <= 2.5\ngini = 0.5569\nsamples = 27\nvalue = [0, 4, 17, 1, 4, 1]"] ;
34 -> 35 ;
36 [label="gini = 0.0\nsamples = 1\nvalue = [0, 0, 0, 0, 1, 0]"] ;
35 -> 36 ;
37 [label="Stripes <= 4.0\ngini = 0.5325\nsamples = 26\nvalue = [0, 4, 17, 1, 3, 1]"] ;
35 -> 37 ;
38 [label="Crosses <= 0.5\ngini = 0.5024\nsamples = 25\nvalue = [0, 4, 17, 1, 2, 1]"] ;
37 -> 38 ;
39 [label="Colours <= 2.5\ngini = 0.585\nsamples = 20\nvalue = [0, 4, 12, 1, 2, 1]"] ;
38 -> 39 ;
40 [label="Stripes <= 1.0\ngini = 0.6111\nsamples = 6\nvalue = [0, 0, 3, 0, 2, 1]"] ;
39 -> 40 ;
41 [label="gini = 0.0\nsamples = 2\nvalue = [0, 0, 0, 0, 2, 0]"] ;
40 -> 41 ;
42 [label="Botr_col <= 6.5\ngini = 0.375\nsamples = 4\nvalue = [0, 0, 3, 0, 0, 1]"] ;
40 -> 42 ;
43 [label="gini = 0.0\nsamples = 2\nvalue = [0, 0, 2, 0, 0, 0]"] ;
42 -> 43 ;
44 [label="gini = 0.5\nsamples = 2\nvalue = [0, 0, 1, 0, 0, 1]"] ;
42 -> 44 ;
45 [label="Botr_col <= 4.5\ngini = 0.5\nsamples = 14\nvalue = [0, 4, 9, 1, 0, 0]"] ;
39 -> 45 ;
46 [label="gini = 0.0\nsamples = 3\nvalue = [0, 0, 3, 0, 0, 0]"] ;
45 -> 46 ;
47 [label="Stripes <= 2.5\ngini = 0.562\nsamples = 11\nvalue = [0, 4, 6, 1, 0, 0]"] ;
45 -> 47 ;
48 [label="Gold <= 0.5\ngini = 0.4938\nsamples = 9\nvalue = [0, 2, 6, 1, 0, 0]"] ;
47 -> 48 ;
49 [label="Black <= 0.5\ngini = 0.5\nsamples = 4\nvalue = [0, 2, 2, 0, 0, 0]"] ;
48 -> 49 ;
50 [label="Topl_col <= 4.0\ngini = 0.4444\nsamples = 3\nvalue = [0, 1, 2, 0, 0, 0]"] ;
49 -> 50 ;
51 [label="gini = 0.5\nsamples = 2\nvalue = [0, 1, 1, 0, 0, 0]"] ;
50 -> 51 ;
52 [label="gini = 0.0\nsamples = 1\nvalue = [0, 0, 1, 0, 0, 0]"] ;
50 -> 52 ;
53 [label="gini = 0.0\nsamples = 1\nvalue = [0, 1, 0, 0, 0, 0]"] ;
49 -> 53 ;
54 [label="Icon <= 0.5\ngini = 0.32\nsamples = 5\nvalue = [0, 0, 4, 1, 0, 0]"] ;
48 -> 54 ;
55 [label="Topl_col <= 0.5\ngini = 0.4444\nsamples = 3\nvalue = [0, 0, 2, 1, 0, 0]"] ;
54 -> 55 ;
56 [label="gini = 0.0\nsamples = 1\nvalue = [0, 0, 1, 0, 0, 0]"] ;
55 -> 56 ;
57 [label="gini = 0.5\nsamples = 2\nvalue = [0, 0, 1, 1, 0, 0]"] ;
55 -> 57 ;
58 [label="gini = 0.0\nsamples = 2\nvalue = [0, 0, 2, 0, 0, 0]"] ;
54 -> 58 ;
59 [label="gini = 0.0\nsamples = 2\nvalue = [0, 2, 0, 0, 0, 0]"] ;
47 -> 59 ;
60 [label="gini = 0.0\nsamples = 5\nvalue = [0, 0, 5, 0, 0, 0]"] ;
38 -> 60 ;
61 [label="gini = 0.0\nsamples = 1\nvalue = [0, 0, 0, 0, 1, 0]"] ;
37 -> 61 ;
62 [label="gini = 0.0\nsamples = 1\nvalue = [0, 0, 0, 0, 0, 1]"] ;
34 -> 62 ;
63 [label="Icon <= 0.5\ngini = 0.4444\nsamples = 3\nvalue = [2, 0, 0, 0, 1, 0]"] ;
33 -> 63 ;
64 [label="gini = 0.0\nsamples = 2\nvalue = [2, 0, 0, 0, 0, 0]"] ;
63 -> 64 ;
65 [label="gini = 0.0\nsamples = 1\nvalue = [0, 0, 0, 0, 1, 0]"] ;
63 -> 65 ;
66 [label="Topl_col <= 2.5\ngini = 0.56\nsamples = 5\nvalue = [1, 0, 0, 1, 3, 0]"] ;
32 -> 66 ;
67 [label="gini = 0.0\nsamples = 1\nvalue = [0, 0, 0, 1, 0, 0]"] ;
66 -> 67 ;
68 [label="Colours <= 2.5\ngini = 0.375\nsamples = 4\nvalue = [1, 0, 0, 0, 3, 0]"] ;
66 -> 68 ;
69 [label="gini = 0.0\nsamples = 1\nvalue = [1, 0, 0, 0, 0, 0]"] ;
68 -> 69 ;
70 [label="gini = 0.0\nsamples = 3\nvalue = [0, 0, 0, 0, 3, 0]"] ;
68 -> 70 ;
71 [label="Colours <= 2.5\ngini = 0.7257\nsamples = 24\nvalue = [4, 3, 2, 2, 11, 2]"] ;
31 -> 71 ;
72 [label="Circles <= 0.5\ngini = 0.2188\nsamples = 8\nvalue = [0, 0, 0, 1, 7, 0]"] ;
71 -> 72 ;
73 [label="gini = 0.0\nsamples = 6\nvalue = [0, 0, 0, 0, 6, 0]"] ;
72 -> 73 ;
74 [label="Crescent <= 0.5\ngini = 0.5\nsamples = 2\nvalue = [0, 0, 0, 1, 1, 0]"] ;
72 -> 74 ;
75 [label="gini = 0.0\nsamples = 1\nvalue = [0, 0, 0, 0, 1, 0]"] ;
74 -> 75 ;
76 [label="gini = 0.0\nsamples = 1\nvalue = [0, 0, 0, 1, 0, 0]"] ;
74 -> 76 ;
77 [label="Crescent <= 0.5\ngini = 0.8047\nsamples = 16\nvalue = [4, 3, 2, 1, 4, 2]"] ;
71 -> 77 ;
78 [label="Icon <= 0.5\ngini = 0.7929\nsamples = 13\nvalue = [4, 3, 2, 1, 1, 2]"] ;
77 -> 78 ;
79 [label="Quarters <= 0.5\ngini = 0.642\nsamples = 9\nvalue = [4, 3, 2, 0, 0, 0]"] ;
78 -> 79 ;
80 [label="Triangle <= 0.5\ngini = 0.48\nsamples = 5\nvalue = [3, 0, 2, 0, 0, 0]"] ;
79 -> 80 ;
81 [label="Botr_col <= 6.5\ngini = 0.4444\nsamples = 3\nvalue = [1, 0, 2, 0, 0, 0]"] ;
80 -> 81 ;
82 [label="gini = 0.0\nsamples = 2\nvalue = [0, 0, 2, 0, 0, 0]"] ;
81 -> 82 ;
83 [label="gini = 0.0\nsamples = 1\nvalue = [1, 0, 0, 0, 0, 0]"] ;
81 -> 83 ;
84 [label="gini = 0.0\nsamples = 2\nvalue = [2, 0, 0, 0, 0, 0]"] ;
80 -> 84 ;
85 [label="Stripes <= 11.0\ngini = 0.375\nsamples = 4\nvalue = [1, 3, 0, 0, 0, 0]"] ;
79 -> 85 ;
86 [label="gini = 0.0\nsamples = 3\nvalue = [0, 3, 0, 0, 0, 0]"] ;
85 -> 86 ;
87 [label="gini = 0.0\nsamples = 1\nvalue = [1, 0, 0, 0, 0, 0]"] ;
85 -> 87 ;
88 [label="Colours <= 3.5\ngini = 0.625\nsamples = 4\nvalue = [0, 0, 0, 1, 1, 2]"] ;
78 -> 88 ;
89 [label="White <= 0.5\ngini = 0.5\nsamples = 2\nvalue = [0, 0, 0, 1, 1, 0]"] ;
88 -> 89 ;
90 [label="gini = 0.0\nsamples = 1\nvalue = [0, 0, 0, 1, 0, 0]"] ;
89 -> 90 ;
91 [label="gini = 0.0\nsamples = 1\nvalue = [0, 0, 0, 0, 1, 0]"] ;
89 -> 91 ;
92 [label="gini = 0.0\nsamples = 2\nvalue = [0, 0, 0, 0, 0, 2]"] ;
88 -> 92 ;
93 [label="gini = 0.0\nsamples = 3\nvalue = [0, 0, 0, 0, 3, 0]"] ;
77 -> 93 ;
94 [label="Colours <= 5.5\ngini = 0.6892\nsamples = 83\nvalue = [13, 5, 5, 41, 15, 4]"] ;
0 -> 94 [labeldistance=2.5, labelangle=-45, headlabel="False"] ;
95 [label="White <= 0.5\ngini = 0.599\nsamples = 68\nvalue = [5, 2, 5, 40, 14, 2]"] ;
94 -> 95 ;
96 [label="Topl_col <= 3.5\ngini = 0.2848\nsamples = 25\nvalue = [2, 0, 0, 21, 1, 1]"] ;
95 -> 96 ;
97 [label="Topl_col <= 1.5\ngini = 0.75\nsamples = 4\nvalue = [1, 0, 0, 1, 1, 1]"] ;
96 -> 97 ;
98 [label="Animate <= 0.5\ngini = 0.5\nsamples = 2\nvalue = [0, 0, 0, 1, 0, 1]"] ;
97 -> 98 ;
99 [label="gini = 0.0\nsamples = 1\nvalue = [0, 0, 0, 1, 0, 0]"] ;
98 -> 99 ;
100 [label="gini = 0.0\nsamples = 1\nvalue = [0, 0, 0, 0, 0, 1]"] ;
98 -> 100 ;
101 [label="Icon <= 0.5\ngini = 0.5\nsamples = 2\nvalue = [1, 0, 0, 0, 1, 0]"] ;
97 -> 101 ;
102 [label="gini = 0.0\nsamples = 1\nvalue = [1, 0, 0, 0, 0, 0]"] ;
101 -> 102 ;
103 [label="gini = 0.0\nsamples = 1\nvalue = [0, 0, 0, 0, 1, 0]"] ;
101 -> 103 ;
104 [label="Sunstars <= 4.5\ngini = 0.0907\nsamples = 21\nvalue = [1, 0, 0, 20, 0, 0]"] ;
96 -> 104 ;
105 [label="gini = 0.0\nsamples = 20\nvalue = [0, 0, 0, 20, 0, 0]"] ;
104 -> 105 ;
106 [label="gini = 0.0\nsamples = 1\nvalue = [1, 0, 0, 0, 0, 0]"] ;
104 -> 106 ;
107 [label="Main_col <= 6.5\ngini = 0.6923\nsamples = 43\nvalue = [3, 2, 5, 19, 13, 1]"] ;
95 -> 107 ;
108 [label="Stripes <= 4.0\ngini = 0.664\nsamples = 39\nvalue = [3, 2, 2, 18, 13, 1]"] ;
107 -> 108 ;
109 [label="Black <= 0.5\ngini = 0.6758\nsamples = 33\nvalue = [3, 1, 2, 13, 13, 1]"] ;
108 -> 109 ;
110 [label="Icon <= 0.5\ngini = 0.6752\nsamples = 25\nvalue = [2, 1, 2, 12, 7, 1]"] ;
109 -> 110 ;
111 [label="Sunstars <= 4.0\ngini = 0.5864\nsamples = 18\nvalue = [1, 1, 1, 11, 3, 1]"] ;
110 -> 111 ;
112 [label="Animate <= 0.5\ngini = 0.4844\nsamples = 16\nvalue = [1, 0, 1, 11, 3, 0]"] ;
111 -> 112 ;
113 [label="Crescent <= 0.5\ngini = 0.3571\nsamples = 14\nvalue = [0, 0, 1, 11, 2, 0]"] ;
112 -> 113 ;
114 [label="Main_col <= 5.5\ngini = 0.1653\nsamples = 11\nvalue = [0, 0, 1, 10, 0, 0]"] ;
113 -> 114 ;
115 [label="gini = 0.0\nsamples = 7\nvalue = [0, 0, 0, 7, 0, 0]"] ;
114 -> 115 ;
116 [label="Stripes <= 2.5\ngini = 0.375\nsamples = 4\nvalue = [0, 0, 1, 3, 0, 0]"] ;
114 -> 116 ;
117 [label="gini = 0.0\nsamples = 3\nvalue = [0, 0, 0, 3, 0, 0]"] ;
116 -> 117 ;
118 [label="gini = 0.0\nsamples = 1\nvalue = [0, 0, 1, 0, 0, 0]"] ;
116 -> 118 ;
119 [label="Topl_col <= 5.0\ngini = 0.4444\nsamples = 3\nvalue = [0, 0, 0, 1, 2, 0]"] ;
113 -> 119 ;
120 [label="gini = 0.0\nsamples = 1\nvalue = [0, 0, 0, 1, 0, 0]"] ;
119 -> 120 ;
121 [label="gini = 0.0\nsamples = 2\nvalue = [0, 0, 0, 0, 2, 0]"] ;
119 -> 121 ;
122 [label="Topl_col <= 5.0\ngini = 0.5\nsamples = 2\nvalue = [1, 0, 0, 0, 1, 0]"] ;
112 -> 122 ;
123 [label="gini = 0.0\nsamples = 1\nvalue = [1, 0, 0, 0, 0, 0]"] ;
122 -> 123 ;
124 [label="gini = 0.0\nsamples = 1\nvalue = [0, 0, 0, 0, 1, 0]"] ;
122 -> 124 ;
125 [label="Topl_col <= 2.5\ngini = 0.5\nsamples = 2\nvalue = [0, 1, 0, 0, 0, 1]"] ;
111 -> 125 ;
126 [label="gini = 0.0\nsamples = 1\nvalue = [0, 0, 0, 0, 0, 1]"] ;
125 -> 126 ;
127 [label="gini = 0.0\nsamples = 1\nvalue = [0, 1, 0, 0, 0, 0]"] ;
125 -> 127 ;
128 [label="Gold <= 0.5\ngini = 0.6122\nsamples = 7\nvalue = [1, 0, 1, 1, 4, 0]"] ;
110 -> 128 ;
129 [label="Bars <= 1.0\ngini = 0.32\nsamples = 5\nvalue = [0, 0, 0, 1, 4, 0]"] ;
128 -> 129 ;
130 [label="gini = 0.0\nsamples = 4\nvalue = [0, 0, 0, 0, 4, 0]"] ;
129 -> 130 ;
131 [label="gini = 0.0\nsamples = 1\nvalue = [0, 0, 0, 1, 0, 0]"] ;
129 -> 131 ;
132 [label="Circles <= 0.5\ngini = 0.5\nsamples = 2\nvalue = [1, 0, 1, 0, 0, 0]"] ;
128 -> 132 ;
133 [label="gini = 0.0\nsamples = 1\nvalue = [1, 0, 0, 0, 0, 0]"] ;
132 -> 133 ;
134 [label="gini = 0.0\nsamples = 1\nvalue = [0, 0, 1, 0, 0, 0]"] ;
132 -> 134 ;
135 [label="Stripes <= 1.5\ngini = 0.4063\nsamples = 8\nvalue = [1, 0, 0, 1, 6, 0]"] ;
109 -> 135 ;
136 [label="gini = 0.0\nsamples = 1\nvalue = [1, 0, 0, 0, 0, 0]"] ;
135 -> 136 ;
137 [label="Triangle <= 0.5\ngini = 0.2449\nsamples = 7\nvalue = [0, 0, 0, 1, 6, 0]"] ;
135 -> 137 ;
138 [label="gini = 0.0\nsamples = 5\nvalue = [0, 0, 0, 0, 5, 0]"] ;
137 -> 138 ;
139 [label="Sunstars <= 0.5\ngini = 0.5\nsamples = 2\nvalue = [0, 0, 0, 1, 1, 0]"] ;
137 -> 139 ;
140 [label="gini = 0.0\nsamples = 1\nvalue = [0, 0, 0, 1, 0, 0]"] ;
139 -> 140 ;
141 [label="gini = 0.0\nsamples = 1\nvalue = [0, 0, 0, 0, 1, 0]"] ;
139 -> 141 ;
142 [label="Black <= 0.5\ngini = 0.2778\nsamples = 6\nvalue = [0, 1, 0, 5, 0, 0]"] ;
108 -> 142 ;
143 [label="Topl_col <= 5.0\ngini = 0.4444\nsamples = 3\nvalue = [0, 1, 0, 2, 0, 0]"] ;
142 -> 143 ;
144 [label="gini = 0.0\nsamples = 1\nvalue = [0, 1, 0, 0, 0, 0]"] ;
143 -> 144 ;
145 [label="gini = 0.0\nsamples = 2\nvalue = [0, 0, 0, 2, 0, 0]"] ;
143 -> 145 ;
146 [label="gini = 0.0\nsamples = 3\nvalue = [0, 0, 0, 3, 0, 0]"] ;
142 -> 146 ;
147 [label="Botr_col <= 4.5\ngini = 0.375\nsamples = 4\nvalue = [0, 0, 3, 1, 0, 0]"] ;
107 -> 147 ;
148 [label="gini = 0.0\nsamples = 1\nvalue = [0, 0, 0, 1, 0, 0]"] ;
147 -> 148 ;
149 [label="gini = 0.0\nsamples = 3\nvalue = [0, 0, 3, 0, 0, 0]"] ;
147 -> 149 ;
150 [label="Stripes <= 2.5\ngini = 0.6489\nsamples = 15\nvalue = [8, 3, 0, 1, 1, 2]"] ;
94 -> 150 ;
151 [label="Animate <= 0.5\ngini = 0.5799\nsamples = 13\nvalue = [8, 1, 0, 1, 1, 2]"] ;
150 -> 151 ;
152 [label="gini = 0.0\nsamples = 1\nvalue = [0, 0, 0, 1, 0, 0]"] ;
151 -> 152 ;
153 [label="Colours <= 6.5\ngini = 0.5139\nsamples = 12\nvalue = [8, 1, 0, 0, 1, 2]"] ;
151 -> 153 ;
154 [label="Text <= 0.5\ngini = 0.4063\nsamples = 8\nvalue = [6, 1, 0, 0, 1, 0]"] ;
153 -> 154 ;
155 [label="gini = 0.0\nsamples = 3\nvalue = [3, 0, 0, 0, 0, 0]"] ;
154 -> 155 ;
156 [label="Circles <= 0.5\ngini = 0.56\nsamples = 5\nvalue = [3, 1, 0, 0, 1, 0]"] ;
154 -> 156 ;
157 [label="gini = 0.0\nsamples = 2\nvalue = [2, 0, 0, 0, 0, 0]"] ;
156 -> 157 ;
158 [label="Sunstars <= 2.0\ngini = 0.6667\nsamples = 3\nvalue = [1, 1, 0, 0, 1, 0]"] ;
156 -> 158 ;
159 [label="gini = 0.5\nsamples = 2\nvalue = [0, 1, 0, 0, 1, 0]"] ;
158 -> 159 ;
160 [label="gini = 0.0\nsamples = 1\nvalue = [1, 0, 0, 0, 0, 0]"] ;
158 -> 160 ;
161 [label="Black <= 0.5\ngini = 0.5\nsamples = 4\nvalue = [2, 0, 0, 0, 0, 2]"] ;
153 -> 161 ;
162 [label="gini = 0.0\nsamples = 2\nvalue = [0, 0, 0, 0, 0, 2]"] ;
161 -> 162 ;
163 [label="gini = 0.0\nsamples = 2\nvalue = [2, 0, 0, 0, 0, 0]"] ;
161 -> 163 ;
164 [label="gini = 0.0\nsamples = 2\nvalue = [0, 2, 0, 0, 0, 0]"] ;
150 -> 164 ;
}